digraph Tree {
node [shape=box] ;
0 [label="node #0\nX_2 <= 1.541\ngini = 0.611\nsamples = 600\nvalue = [200, 100, 300]"] ;
1 [label="node #1\ngini = 0.08\nsamples = 311\nvalue = [13, 0, 298]"] ;
0 -> 1 [labeldistance=2.5, labelangle=45, headlabel="True"] ;
2 [label="node #2\nX_2 <= 2.546\ngini = 0.462\nsamples = 289\nvalue = [187, 100, 2]"] ;
0 -> 2 [labeldistance=2.5, labelangle=-45, headlabel="False"] ;
3 [label="node #3\ngini = 0.114\nsamples = 199\nvalue = [187, 10, 2]"] ;
2 -> 3 ;
4 [label="node #4\ngini = 0.0\nsamples = 90\nvalue = [0, 90, 0]"] ;
2 -> 4 ;
}