digraph Tree {
node [shape=box] ;
0 [label="node #0\nX_7 <= 2.448\ngini = 0.656\nsamples = 800\nvalue = [200, 400, 100, 100]"] ;
1 [label="node #1\nX_7 <= 1.468\ngini = 0.428\nsamples = 290\nvalue = [200, 0, 0, 90]"] ;
0 -> 1 [labeldistance=2.5, labelangle=45, headlabel="True"] ;
2 [label="node #2\ngini = 0.0\nsamples = 190\nvalue = [190, 0, 0, 0]"] ;
1 -> 2 ;
3 [label="node #3\ngini = 0.18\nsamples = 100\nvalue = [10, 0, 0, 90]"] ;
1 -> 3 ;
4 [label="node #4\nX_7 <= 3.555\ngini = 0.346\nsamples = 510\nvalue = [0, 400, 100, 10]"] ;
0 -> 4 [labeldistance=2.5, labelangle=-45, headlabel="False"] ;
5 [label="node #5\ngini = 0.083\nsamples = 418\nvalue = [0, 400, 8, 10]"] ;
4 -> 5 ;
6 [label="node #6\ngini = 0.0\nsamples = 92\nvalue = [0, 0, 92, 0]"] ;
4 -> 6 ;
}