digraph Tree {
node [shape=box] ;
0 [label="node #0\nX_1 <= 1.529\ngini = 0.777\nsamples = 1100\nvalue = [300, 100, 200, 300, 200]"] ;
1 [label="node #1\ngini = 0.045\nsamples = 303\nvalue = [0, 0, 7, 296, 0]"] ;
0 -> 1 [labeldistance=2.5, labelangle=45, headlabel="True"] ;
2 [label="node #2\nX_1 <= 4.491\ngini = 0.721\nsamples = 797\nvalue = [300, 100, 193, 4, 200]"] ;
0 -> 2 [labeldistance=2.5, labelangle=-45, headlabel="False"] ;
3 [label="node #3\nX_1 <= 3.443\ngini = 0.657\nsamples = 499\nvalue = [7, 100, 193, 4, 195]"] ;
2 -> 3 ;
4 [label="node #4\nX_1 <= 2.551\ngini = 0.452\nsamples = 289\nvalue = [0, 92, 193, 4, 0]"] ;
3 -> 4 ;
5 [label="node #5\ngini = 0.136\nsamples = 208\nvalue = [0, 11, 193, 4, 0]"] ;
4 -> 5 ;
6 [label="node #6\ngini = 0.0\nsamples = 81\nvalue = [0, 81, 0, 0, 0]"] ;
4 -> 6 ;
7 [label="node #7\ngini = 0.135\nsamples = 210\nvalue = [7, 8, 0, 0, 195]"] ;
3 -> 7 ;
8 [label="node #8\ngini = 0.033\nsamples = 298\nvalue = [293, 0, 0, 0, 5]"] ;
2 -> 8 ;
}