digraph Tree {
node [shape=box] ;
0 [label="node #0\nX_9 <= 4.45\ngini = 0.781\nsamples = 800\nvalue = [200, 100, 200, 200, 100]"] ;
1 [label="node #1\nX_9 <= 1.553\ngini = 0.72\nsamples = 594\nvalue = [0, 100, 200, 200, 94]"] ;
0 -> 1 [labeldistance=2.5, labelangle=45, headlabel="True"] ;
2 [label="node #2\ngini = 0.082\nsamples = 209\nvalue = [0, 9, 0, 200, 0]"] ;
1 -> 2 ;
3 [label="node #3\nX_9 <= 3.55\ngini = 0.615\nsamples = 385\nvalue = [0, 91, 200, 0, 94]"] ;
1 -> 3 ;
4 [label="node #4\nX_9 <= 2.428\ngini = 0.459\nsamples = 299\nvalue = [0, 91, 200, 0, 8]"] ;
3 -> 4 ;
5 [label="node #5\ngini = 0.0\nsamples = 74\nvalue = [0, 74, 0, 0, 0]"] ;
4 -> 5 ;
6 [label="node #6\nX_9 <= 2.55\ngini = 0.203\nsamples = 225\nvalue = [0, 17, 200, 0, 8]"] ;
4 -> 6 ;
7 [label="node #7\ngini = 0.498\nsamples = 36\nvalue = [0, 17, 19, 0, 0]"] ;
6 -> 7 ;
8 [label="node #8\ngini = 0.081\nsamples = 189\nvalue = [0, 0, 181, 0, 8]"] ;
6 -> 8 ;
9 [label="node #9\ngini = 0.0\nsamples = 86\nvalue = [0, 0, 0, 0, 86]"] ;
3 -> 9 ;
10 [label="node #10\ngini = 0.057\nsamples = 206\nvalue = [200, 0, 0, 0, 6]"] ;
0 -> 10 [labeldistance=2.5, labelangle=-45, headlabel="False"] ;
}