digraph Tree {
node [shape=box] ;
0 [label="node #0\nX_4 <= 2.54\ngini = 0.612\nsamples = 700\nvalue = [100, 300, 300]"] ;
1 [label="node #1\nX_4 <= 1.462\ngini = 0.438\nsamples = 423\nvalue = [100, 300, 23]"] ;
0 -> 1 [labeldistance=2.5, labelangle=45, headlabel="True"] ;
2 [label="node #2\ngini = 0.022\nsamples = 92\nvalue = [91, 1, 0]"] ;
1 -> 2 ;
3 [label="node #3\ngini = 0.178\nsamples = 331\nvalue = [9, 299, 23]"] ;
1 -> 3 ;
4 [label="node #4\ngini = 0.0\nsamples = 277\nvalue = [0, 0, 277]"] ;
0 -> 4 [labeldistance=2.5, labelangle=-45, headlabel="False"] ;
}